digraph Tree {
node [shape=box, style="filled, rounded", color="black", fontname=helvetica] ;
edge [fontname=helvetica] ;
0 [label="LogArea <= 0.97\ngini = 0.4\nsamples = 32\nvalue = [14, 37]\nclass = good", fillcolor="#84c2ef"] ;
1 [label="YCoord <= 34123.92\ngini = 0.06\nsamples = 18\nvalue = [1, 31]\nclass = good", fillcolor="#3fa0e6"] ;
0 -> 1 [labeldistance=2.5, labelangle=45, headlabel="True"] ;
2 [label="gini = 0.0\nsamples = 16\nvalue = [0, 28]\nclass = good", fillcolor="#399de5"] ;
1 -> 2 ;
3 [label="FacilFAR <= -0.6\ngini = 0.38\nsamples = 2\nvalue = [1, 3]\nclass = good", fillcolor="#7bbeee"] ;
1 -> 3 ;
4 [label="gini = 0.0\nsamples = 1\nvalue = [0, 3]\nclass = good", fillcolor="#399de5"] ;
3 -> 4 ;
5 [label="gini = 0.0\nsamples = 1\nvalue = [1, 0]\nclass = bad", fillcolor="#e58139"] ;
3 -> 5 ;
6 [label="BldgDepth <= 48.37\ngini = 0.43\nsamples = 14\nvalue = [13, 6]\nclass = bad", fillcolor="#f1bb94"] ;
0 -> 6 [labeldistance=2.5, labelangle=-45, headlabel="False"] ;
7 [label="NumBldgs <= 68.8\ngini = 0.26\nsamples = 9\nvalue = [11, 2]\nclass = bad", fillcolor="#ea985d"] ;
6 -> 7 ;
8 [label="LotArea <= -81342.74\ngini = 0.15\nsamples = 8\nvalue = [11, 1]\nclass = bad", fillcolor="#e78c4b"] ;
7 -> 8 ;
9 [label="gini = 0.0\nsamples = 6\nvalue = [9, 0]\nclass = bad", fillcolor="#e58139"] ;
8 -> 9 ;
10 [label="FacilFAR <= -0.6\ngini = 0.44\nsamples = 2\nvalue = [2, 1]\nclass = bad", fillcolor="#f2c09c"] ;
8 -> 10 ;
11 [label="gini = 0.0\nsamples = 1\nvalue = [2, 0]\nclass = bad", fillcolor="#e58139"] ;
10 -> 11 ;
12 [label="gini = 0.0\nsamples = 1\nvalue = [0, 1]\nclass = good", fillcolor="#399de5"] ;
10 -> 12 ;
13 [label="gini = 0.0\nsamples = 1\nvalue = [0, 1]\nclass = good", fillcolor="#399de5"] ;
7 -> 13 ;
14 [label="YCoord <= -33494.08\ngini = 0.44\nsamples = 5\nvalue = [2, 4]\nclass = good", fillcolor="#9ccef2"] ;
6 -> 14 ;
15 [label="gini = 0.0\nsamples = 1\nvalue = [1, 0]\nclass = bad", fillcolor="#e58139"] ;
14 -> 15 ;
16 [label="BldgDepth <= 85.08\ngini = 0.32\nsamples = 4\nvalue = [1, 4]\nclass = good", fillcolor="#6ab6ec"] ;
14 -> 16 ;
17 [label="gini = 0.0\nsamples = 3\nvalue = [0, 4]\nclass = good", fillcolor="#399de5"] ;
16 -> 17 ;
18 [label="gini = 0.0\nsamples = 1\nvalue = [1, 0]\nclass = bad", fillcolor="#e58139"] ;
16 -> 18 ;
}